<?xml version="1.0"?>
<opencv_storage>
<cascade>
  <stageType>BOOST</stageType>
  <featureType>HAAR</featureType>
  <height>24</height>
  <width>24</width>
  <stageParams>
    <boostType>GAB</boostType>
    <minHitRate>9.9500000476837158e-01</minHitRate>
    <maxFalseAlarm>5.0000000000000000e-01</maxFalseAlarm>
    <weightTrimRate>9.4999998807907104e-01</weightTrimRate>
    <maxDepth>1</maxDepth>
    <maxWeakCount>100</maxWeakCount></stageParams>
  <featureParams>
    <maxCatCount>0</maxCatCount>
    <featSize>1</featSize>
    <mode>BASIC</mode></featureParams>
  <stageNum>3</stageNum>
  <stages>
    <!-- stage 0 -->
    <_>
      <maxWeakCount>2</maxWeakCount>
      <stageThreshold>-3.1960389018058777e-01</stageThreshold>
      <weakClassifiers>
        <_>
          <internalNodes>
            0 -1 2 2.0787252485752106e-01</internalNodes>
          <leafValues>
            -9.9201595783233643e-01 6.6666668653488159e-01</leafValues></_>
        <_>
          <internalNodes>
            0 -1 0 -1.6626524925231934e-01</internalNodes>
          <leafValues>
            6.7449873685836792e-01 -9.8627054691314697e-01</leafValues></_></weakClassifiers></_>
    <!-- stage 1 -->
    <_>
      <maxWeakCount>2</maxWeakCount>
      <stageThreshold>-8.9930623769760132e-01</stageThreshold>
      <weakClassifiers>
        <_>
          <internalNodes>
            0 -1 4 -8.1230789422988892e-02</internalNodes>
          <leafValues>
            9.0909093618392944e-02 -9.9596774578094482e-01</leafValues></_>
        <_>
          <internalNodes>
            0 -1 3 1.3702107965946198e-01</internalNodes>
          <leafValues>
            -9.9021536111831665e-01 4.7546076774597168e-01</leafValues></_></weakClassifiers></_>
    <!-- stage 2 -->
    <_>
      <maxWeakCount>2</maxWeakCount>
      <stageThreshold>0.</stageThreshold>
      <weakClassifiers>
        <_>
          <internalNodes>
            0 -1 1 -1.3681304454803467e-01</internalNodes>
          <leafValues>
            1. -9.9401795864105225e-01</leafValues></_>
        <_>
          <internalNodes>
            0 -1 5 4.1964364936575294e-04</internalNodes>
          <leafValues>
            -1. 1.</leafValues></_></weakClassifiers></_></stages>
  <features>
    <_>
      <rects>
        <_>
          0 4 8 18 -1.</_>
        <_>
          4 4 4 18 2.</_></rects>
      <tilted>0</tilted></_>
    <_>
      <rects>
        <_>
          8 0 8 12 -1.</_>
        <_>
          8 4 8 4 3.</_></rects>
      <tilted>0</tilted></_>
    <_>
      <rects>
        <_>
          9 3 7 18 -1.</_>
        <_>
          9 9 7 6 3.</_></rects>
      <tilted>0</tilted></_>
    <_>
      <rects>
        <_>
          10 11 12 12 -1.</_>
        <_>
          10 11 6 6 2.</_>
        <_>
          16 17 6 6 2.</_></rects>
      <tilted>0</tilted></_>
    <_>
      <rects>
        <_>
          18 0 2 24 -1.</_>
        <_>
          18 8 2 8 3.</_></rects>
      <tilted>0</tilted></_>
    <_>
      <rects>
        <_>
          18 12 6 2 -1.</_>
        <_>
          18 12 3 1 2.</_>
        <_>
          21 13 3 1 2.</_></rects>
      <tilted>0</tilted></_></features></cascade>
</opencv_storage>
